<?xml version="1.0"?>
<opencv_storage>
<stage9>
  <maxWeakCount>10</maxWeakCount>
  <stageThreshold>-1.0575598478317261e+00</stageThreshold>
  <weakClassifiers>
    <_>
      <internalNodes>
        0 -1 37351 -9.6631854772567749e-02</internalNodes>
      <leafValues>
        9.2682927846908569e-01 -3.9299610257148743e-01</leafValues></_>
    <_>
      <internalNodes>
        0 -1 19355 -4.8372425953857601e-04</internalNodes>
      <leafValues>
        -5.6473219394683838e-01 3.4284099936485291e-01</leafValues></_>
    <_>
      <internalNodes>
        0 -1 115216 -3.4710858017206192e-02</internalNodes>
      <leafValues>
        5.8180850744247437e-01 -2.9221791028976440e-01</leafValues></_>
    <_>
      <internalNodes>
        0 -1 976 -5.8725965209305286e-04</internalNodes>
      <leafValues>
        -5.6517499685287476e-01 3.1632852554321289e-01</leafValues></_>
    <_>
      <internalNodes>
        0 -1 20266 1.5050804615020752e-01</internalNodes>
      <leafValues>
        -1.9191674888134003e-01 6.7872476577758789e-01</leafValues></_>
    <_>
      <internalNodes>
        0 -1 15558 1.2216011993587017e-02</internalNodes>
      <leafValues>
        -3.1977179646492004e-01 4.5253521203994751e-01</leafValues></_>
    <_>
      <internalNodes>
        0 -1 121180 -4.7732047736644745e-02</internalNodes>
      <leafValues>
        9.2134332656860352e-01 -1.6018588840961456e-01</leafValues></_>
    <_>
      <internalNodes>
        0 -1 79176 -7.8746546059846878e-03</internalNodes>
      <leafValues>
        -7.8549921512603760e-01 2.4823814630508423e-01</leafValues></_>
    <_>
      <internalNodes>
        0 -1 121524 6.1857164837419987e-04</internalNodes>
      <leafValues>
        1.8089468777179718e-01 -6.8404352664947510e-01</leafValues></_>
    <_>
      <internalNodes>
        0 -1 121536 -5.3025590023025870e-04</internalNodes>
      <leafValues>
        -6.1704188585281372e-01 3.3759489655494690e-01</leafValues></_></weakClassifiers></stage9>
</opencv_storage>
