<?xml version="1.0"?>
<opencv_storage>
<stage7>
  <maxWeakCount>10</maxWeakCount>
  <stageThreshold>-9.0965855121612549e-01</stageThreshold>
  <weakClassifiers>
    <_>
      <internalNodes>
        0 -1 71541 2.2417992353439331e-02</internalNodes>
      <leafValues>
        -4.7906976938247681e-01 4.8192772269248962e-01</leafValues></_>
    <_>
      <internalNodes>
        0 -1 1954 -5.6045772507786751e-03</internalNodes>
      <leafValues>
        5.2601426839828491e-01 -3.3162623643875122e-01</leafValues></_>
    <_>
      <internalNodes>
        0 -1 72267 8.7263435125350952e-02</internalNodes>
      <leafValues>
        -2.0788985490798950e-01 7.5950247049331665e-01</leafValues></_>
    <_>
      <internalNodes>
        0 -1 124805 -7.3638191679492593e-04</internalNodes>
      <leafValues>
        -6.8500560522079468e-01 2.5728273391723633e-01</leafValues></_>
    <_>
      <internalNodes>
        0 -1 87071 -8.0114300362765789e-04</internalNodes>
      <leafValues>
        4.2251047492027283e-01 -3.2960978150367737e-01</leafValues></_>
    <_>
      <internalNodes>
        0 -1 71689 -1.2801033444702625e-03</internalNodes>
      <leafValues>
        -8.3452773094177246e-01 1.3265821337699890e-01</leafValues></_>
    <_>
      <internalNodes>
        0 -1 122095 3.3304736018180847e-02</internalNodes>
      <leafValues>
        -2.0044229924678802e-01 7.2670006752014160e-01</leafValues></_>
    <_>
      <internalNodes>
        0 -1 73647 3.2535679638385773e-03</internalNodes>
      <leafValues>
        -2.4311459064483643e-01 5.6628960371017456e-01</leafValues></_>
    <_>
      <internalNodes>
        0 -1 93380 3.0837233643978834e-03</internalNodes>
      <leafValues>
        2.0046280324459076e-01 -8.4105485677719116e-01</leafValues></_>
    <_>
      <internalNodes>
        0 -1 75196 -5.9260260313749313e-03</internalNodes>
      <leafValues>
        5.0773012638092041e-01 -3.2754582166671753e-01</leafValues></_></weakClassifiers></stage7>
</opencv_storage>
