<?xml version="1.0"?>
<opencv_storage>
<stage16>
  <maxWeakCount>12</maxWeakCount>
  <stageThreshold>-1.1399880647659302e+00</stageThreshold>
  <weakClassifiers>
    <_>
      <internalNodes>
        0 -1 46952 7.3132522404193878e-02</internalNodes>
      <leafValues>
        -3.6986300349235535e-01 7.4117648601531982e-01</leafValues></_>
    <_>
      <internalNodes>
        0 -1 35718 3.1805597245693207e-05</internalNodes>
      <leafValues>
        -2.7368307113647461e-01 4.2137452960014343e-01</leafValues></_>
    <_>
      <internalNodes>
        0 -1 8358 -6.3889994635246694e-05</internalNodes>
      <leafValues>
        3.7483841180801392e-01 -3.3506107330322266e-01</leafValues></_>
    <_>
      <internalNodes>
        0 -1 87007 1.0692678391933441e-02</internalNodes>
      <leafValues>
        -1.7695118486881256e-01 6.2320059537887573e-01</leafValues></_>
    <_>
      <internalNodes>
        0 -1 72231 -1.5775274485349655e-02</internalNodes>
      <leafValues>
        7.9112875461578369e-01 -1.5929488837718964e-01</leafValues></_>
    <_>
      <internalNodes>
        0 -1 102042 -3.2003299565985799e-05</internalNodes>
      <leafValues>
        4.4465574622154236e-01 -2.5259840488433838e-01</leafValues></_>
    <_>
      <internalNodes>
        0 -1 120823 -2.5835590349743143e-05</internalNodes>
      <leafValues>
        3.5103330016136169e-01 -3.2421538233757019e-01</leafValues></_>
    <_>
      <internalNodes>
        0 -1 43438 1.4398977160453796e-02</internalNodes>
      <leafValues>
        -1.2376614660024643e-01 7.7945387363433838e-01</leafValues></_>
    <_>
      <internalNodes>
        0 -1 95469 -2.7811776817543432e-05</internalNodes>
      <leafValues>
        4.5278000831604004e-01 -2.4872596561908722e-01</leafValues></_>
    <_>
      <internalNodes>
        0 -1 35270 -3.8544088602066040e-03</internalNodes>
      <leafValues>
        6.3453924655914307e-01 -1.8117216229438782e-01</leafValues></_>
    <_>
      <internalNodes>
        0 -1 114888 -8.6045882198959589e-05</internalNodes>
      <leafValues>
        3.7390515208244324e-01 -3.3290910720825195e-01</leafValues></_>
    <_>
      <internalNodes>
        0 -1 100252 3.8527795113623142e-03</internalNodes>
      <leafValues>
        2.3109869658946991e-01 -5.6647866964340210e-01</leafValues></_></weakClassifiers></stage16>
</opencv_storage>
