<?xml version="1.0"?>
<opencv_storage>
<stage14>
  <maxWeakCount>10</maxWeakCount>
  <stageThreshold>-1.1041123867034912e+00</stageThreshold>
  <weakClassifiers>
    <_>
      <internalNodes>
        0 -1 79886 -3.5827724786940962e-05</internalNodes>
      <leafValues>
        1.9354838132858276e-01 -6.5034967660903931e-01</leafValues></_>
    <_>
      <internalNodes>
        0 -1 51635 2.9313096092664637e-05</internalNodes>
      <leafValues>
        -4.3467509746551514e-01 3.8982799649238586e-01</leafValues></_>
    <_>
      <internalNodes>
        0 -1 28894 2.3394362870021723e-05</internalNodes>
      <leafValues>
        -3.4386625885963440e-01 4.3732112646102905e-01</leafValues></_>
    <_>
      <internalNodes>
        0 -1 54123 -2.2147278286865912e-05</internalNodes>
      <leafValues>
        4.5440602302551270e-01 -3.1150275468826294e-01</leafValues></_>
    <_>
      <internalNodes>
        0 -1 109929 -3.5405439120950177e-05</internalNodes>
      <leafValues>
        4.7862803936004639e-01 -2.9807427525520325e-01</leafValues></_>
    <_>
      <internalNodes>
        0 -1 79960 -3.4113243600586429e-05</internalNodes>
      <leafValues>
        3.4347674250602722e-01 -4.1778922080993652e-01</leafValues></_>
    <_>
      <internalNodes>
        0 -1 100464 2.2147278286865912e-05</internalNodes>
      <leafValues>
        -3.1556263566017151e-01 4.8925024271011353e-01</leafValues></_>
    <_>
      <internalNodes>
        0 -1 92212 -2.1946219931123778e-05</internalNodes>
      <leafValues>
        4.4133257865905762e-01 -3.0860587954521179e-01</leafValues></_>
    <_>
      <internalNodes>
        0 -1 97 -7.3888443876057863e-04</internalNodes>
      <leafValues>
        -5.3573304414749146e-01 2.3575061559677124e-01</leafValues></_>
    <_>
      <internalNodes>
        0 -1 97 1.3691205531358719e-03</internalNodes>
      <leafValues>
        2.5345042347908020e-01 -6.3050997257232666e-01</leafValues></_></weakClassifiers></stage14>
</opencv_storage>
