<?xml version="1.0"?>
<opencv_storage>
<stage4>
  <maxWeakCount>7</maxWeakCount>
  <stageThreshold>-1.0059466361999512e+00</stageThreshold>
  <weakClassifiers>
    <_>
      <internalNodes>
        0 -1 37904 4.3052524328231812e-02</internalNodes>
      <leafValues>
        -4.7881355881690979e-01 8.0645161867141724e-01</leafValues></_>
    <_>
      <internalNodes>
        0 -1 99702 -4.6674336772412062e-05</internalNodes>
      <leafValues>
        3.5474306344985962e-01 -4.7569012641906738e-01</leafValues></_>
    <_>
      <internalNodes>
        0 -1 123556 3.7897779839113355e-04</internalNodes>
      <leafValues>
        2.5883597135543823e-01 -6.8516427278518677e-01</leafValues></_>
    <_>
      <internalNodes>
        0 -1 102851 -5.1331952214241028e-02</internalNodes>
      <leafValues>
        7.5226122140884399e-01 -2.1709705889225006e-01</leafValues></_>
    <_>
      <internalNodes>
        0 -1 473 -9.1928213834762573e-02</internalNodes>
      <leafValues>
        6.7431694269180298e-01 -2.5029203295707703e-01</leafValues></_>
    <_>
      <internalNodes>
        0 -1 7155 4.1520014405250549e-02</internalNodes>
      <leafValues>
        -3.1474524736404419e-01 6.8963199853897095e-01</leafValues></_>
    <_>
      <internalNodes>
        0 -1 5912 -1.5491528436541557e-02</internalNodes>
      <leafValues>
        5.6756681203842163e-01 -3.3918648958206177e-01</leafValues></_></weakClassifiers></stage4>
</opencv_storage>
