<?xml version="1.0"?>
<opencv_storage>
<stage17>
  <maxWeakCount>11</maxWeakCount>
  <stageThreshold>-1.1316554546356201e+00</stageThreshold>
  <weakClassifiers>
    <_>
      <internalNodes>
        0 -1 19354 5.5569961667060852e-02</internalNodes>
      <leafValues>
        -3.8339921832084656e-01 7.5555557012557983e-01</leafValues></_>
    <_>
      <internalNodes>
        0 -1 71516 6.3082920387387276e-03</internalNodes>
      <leafValues>
        1.5476208925247192e-01 -8.1771957874298096e-01</leafValues></_>
    <_>
      <internalNodes>
        0 -1 100 1.7219986766576767e-03</internalNodes>
      <leafValues>
        1.3692092895507812e-01 -7.2180569171905518e-01</leafValues></_>
    <_>
      <internalNodes>
        0 -1 3 -4.0453142719343305e-04</internalNodes>
      <leafValues>
        -5.2581834793090820e-01 2.1958601474761963e-01</leafValues></_>
    <_>
      <internalNodes>
        0 -1 71256 -1.1946696322411299e-03</internalNodes>
      <leafValues>
        -6.7594385147094727e-01 1.6768796741962433e-01</leafValues></_>
    <_>
      <internalNodes>
        0 -1 45005 -6.0394131578505039e-03</internalNodes>
      <leafValues>
        -6.3550370931625366e-01 1.4363659918308258e-01</leafValues></_>
    <_>
      <internalNodes>
        0 -1 103946 3.5760115832090378e-02</internalNodes>
      <leafValues>
        1.5772095322608948e-01 -6.5380984544754028e-01</leafValues></_>
    <_>
      <internalNodes>
        0 -1 8878 4.4737406075000763e-02</internalNodes>
      <leafValues>
        -1.9953045248985291e-01 6.2586212158203125e-01</leafValues></_>
    <_>
      <internalNodes>
        0 -1 57032 1.2691771984100342e-01</internalNodes>
      <leafValues>
        1.3734984397888184e-01 -8.9117699861526489e-01</leafValues></_>
    <_>
      <internalNodes>
        0 -1 44030 9.4968732446432114e-03</internalNodes>
      <leafValues>
        1.5695688128471375e-01 -5.8469671010971069e-01</leafValues></_>
    <_>
      <internalNodes>
        0 -1 82612 1.2517916969954967e-02</internalNodes>
      <leafValues>
        -1.5308968722820282e-01 8.1065046787261963e-01</leafValues></_></weakClassifiers></stage17>
</opencv_storage>
