<?xml version="1.0"?>
<opencv_storage>
<stage27>
  <maxWeakCount>16</maxWeakCount>
  <stageThreshold>-1.0467643737792969e+00</stageThreshold>
  <weakClassifiers>
    <_>
      <internalNodes>
        0 -1 9940 -5.0007127225399017e-02</internalNodes>
      <leafValues>
        6.2352943420410156e-01 -3.5029354691505432e-01</leafValues></_>
    <_>
      <internalNodes>
        0 -1 32900 -1.0936139151453972e-02</internalNodes>
      <leafValues>
        7.6154482364654541e-01 -1.0357426106929779e-01</leafValues></_>
    <_>
      <internalNodes>
        0 -1 44087 1.5678845345973969e-02</internalNodes>
      <leafValues>
        -1.5247909724712372e-01 5.7322138547897339e-01</leafValues></_>
    <_>
      <internalNodes>
        0 -1 118275 -2.9624170565512031e-05</internalNodes>
      <leafValues>
        2.8400287032127380e-01 -2.8472989797592163e-01</leafValues></_>
    <_>
      <internalNodes>
        0 -1 86600 5.5462693126173690e-05</internalNodes>
      <leafValues>
        -3.2825079560279846e-01 2.5480273365974426e-01</leafValues></_>
    <_>
      <internalNodes>
        0 -1 14965 1.3173984363675117e-02</internalNodes>
      <leafValues>
        1.3248474895954132e-01 -7.2749370336532593e-01</leafValues></_>
    <_>
      <internalNodes>
        0 -1 64290 8.0308620817959309e-04</internalNodes>
      <leafValues>
        -2.6168289780616760e-01 3.6275953054428101e-01</leafValues></_>
    <_>
      <internalNodes>
        0 -1 5846 -5.9685292653739452e-03</internalNodes>
      <leafValues>
        3.7132582068443298e-01 -2.1985419094562531e-01</leafValues></_>
    <_>
      <internalNodes>
        0 -1 5757 5.3238878026604652e-03</internalNodes>
      <leafValues>
        -1.3245682418346405e-01 6.3413119316101074e-01</leafValues></_>
    <_>
      <internalNodes>
        0 -1 64027 3.3407083246856928e-03</internalNodes>
      <leafValues>
        1.7328628897666931e-01 -6.4485716819763184e-01</leafValues></_>
    <_>
      <internalNodes>
        0 -1 110390 -3.5798523458652198e-04</internalNodes>
      <leafValues>
        -5.3099310398101807e-01 1.6228455305099487e-01</leafValues></_>
    <_>
      <internalNodes>
        0 -1 91373 1.5250013675540686e-03</internalNodes>
      <leafValues>
        -2.7247852087020874e-01 3.1064659357070923e-01</leafValues></_>
    <_>
      <internalNodes>
        0 -1 97 9.7740514320321381e-05</internalNodes>
      <leafValues>
        -2.5357076525688171e-01 3.3589899539947510e-01</leafValues></_>
    <_>
      <internalNodes>
        0 -1 64951 -2.1085299085825682e-03</internalNodes>
      <leafValues>
        6.9200676679611206e-01 -1.5354819595813751e-01</leafValues></_>
    <_>
      <internalNodes>
        0 -1 52095 3.4943837672472000e-03</internalNodes>
      <leafValues>
        -1.9898810982704163e-01 4.7919961810112000e-01</leafValues></_>
    <_>
      <internalNodes>
        0 -1 58396 1.1410827189683914e-01</internalNodes>
      <leafValues>
        1.1413604766130447e-01 -8.7426567077636719e-01</leafValues></_></weakClassifiers></stage27>
</opencv_storage>
