<?xml version="1.0"?>
<opencv_storage>
<stage2>
  <maxWeakCount>6</maxWeakCount>
  <stageThreshold>-8.3291906118392944e-01</stageThreshold>
  <weakClassifiers>
    <_>
      <internalNodes>
        0 -1 19130 -3.9994329214096069e-02</internalNodes>
      <leafValues>
        8.5600000619888306e-01 -4.9469214677810669e-01</leafValues></_>
    <_>
      <internalNodes>
        0 -1 86720 -1.7949127359315753e-03</internalNodes>
      <leafValues>
        -8.6866718530654907e-01 2.1899484097957611e-01</leafValues></_>
    <_>
      <internalNodes>
        0 -1 74047 -4.6730086207389832e-02</internalNodes>
      <leafValues>
        6.1895966529846191e-01 -3.1887611746788025e-01</leafValues></_>
    <_>
      <internalNodes>
        0 -1 4544 4.0211513638496399e-02</internalNodes>
      <leafValues>
        -2.3702104389667511e-01 7.7071523666381836e-01</leafValues></_>
    <_>
      <internalNodes>
        0 -1 2303 -7.1612223982810974e-02</internalNodes>
      <leafValues>
        6.8691527843475342e-01 -2.3639982938766479e-01</leafValues></_>
    <_>
      <internalNodes>
        0 -1 9950 8.6576608009636402e-04</internalNodes>
      <leafValues>
        2.9594880342483521e-01 -6.8823987245559692e-01</leafValues></_></weakClassifiers></stage2>
</opencv_storage>
