<?xml version="1.0"?>
<opencv_storage>
<stage25>
  <maxWeakCount>13</maxWeakCount>
  <stageThreshold>-1.0267806053161621e+00</stageThreshold>
  <weakClassifiers>
    <_>
      <internalNodes>
        0 -1 56665 2.1158330142498016e-02</internalNodes>
      <leafValues>
        -3.4220531582832336e-01 7.7142858505249023e-01</leafValues></_>
    <_>
      <internalNodes>
        0 -1 30328 -1.9346040207892656e-03</internalNodes>
      <leafValues>
        3.4903883934020996e-01 -2.7875706553459167e-01</leafValues></_>
    <_>
      <internalNodes>
        0 -1 35728 -3.7058806046843529e-03</internalNodes>
      <leafValues>
        4.3810236454010010e-01 -2.1452614665031433e-01</leafValues></_>
    <_>
      <internalNodes>
        0 -1 94088 -3.8801371119916439e-03</internalNodes>
      <leafValues>
        4.6495285630226135e-01 -1.8482434749603271e-01</leafValues></_>
    <_>
      <internalNodes>
        0 -1 27395 2.3394362870021723e-05</internalNodes>
      <leafValues>
        -2.2680753469467163e-01 3.6575928330421448e-01</leafValues></_>
    <_>
      <internalNodes>
        0 -1 67198 -8.6506418883800507e-03</internalNodes>
      <leafValues>
        5.4161822795867920e-01 -1.6226528584957123e-01</leafValues></_>
    <_>
      <internalNodes>
        0 -1 101548 2.6241801606374793e-05</internalNodes>
      <leafValues>
        -3.0374854803085327e-01 2.7690756320953369e-01</leafValues></_>
    <_>
      <internalNodes>
        0 -1 40324 3.3368110656738281e-02</internalNodes>
      <leafValues>
        1.3364170491695404e-01 -8.2082676887512207e-01</leafValues></_>
    <_>
      <internalNodes>
        0 -1 121111 6.8304436281323433e-03</internalNodes>
      <leafValues>
        -1.3430657982826233e-01 7.8337115049362183e-01</leafValues></_>
    <_>
      <internalNodes>
        0 -1 35723 -6.0565187595784664e-04</internalNodes>
      <leafValues>
        4.4718664884567261e-01 -2.1745604276657104e-01</leafValues></_>
    <_>
      <internalNodes>
        0 -1 32940 -1.1314495466649532e-02</internalNodes>
      <leafValues>
        6.9037789106369019e-01 -1.3429273664951324e-01</leafValues></_>
    <_>
      <internalNodes>
        0 -1 44971 -2.9145732987672091e-03</internalNodes>
      <leafValues>
        -5.6405091285705566e-01 1.7051865160465240e-01</leafValues></_>
    <_>
      <internalNodes>
        0 -1 93665 -1.5742768300697207e-03</internalNodes>
      <leafValues>
        4.0949791669845581e-01 -2.3504739999771118e-01</leafValues></_></weakClassifiers></stage25>
</opencv_storage>
